SVM-light Version V6.01
0 # kernel type
3 # kernel parameter -d 
1 # kernel parameter -g 
1 # kernel parameter -s 
1 # kernel parameter -r 
empty# kernel parameter -u 
4 # highest feature index 
105 # number of training documents 
59 # number of support vectors plus 1 
-2.8141617 # threshold b, each following line is a SV (starting with alpha*y)
-1024 1:7.6999998 2:3 3:6.0999999 4:2.3 #
-1024 1:5 2:3 3:1.6 4:0.2 #
-1024 1:7.1999998 2:3 3:5.8000002 4:1.6 #
1024 1:6.5999999 2:3 3:4.4000001 4:1.4 #
-1024 1:4.5 2:2.3 3:1.3 4:0.30000001 #
1024 1:5.9000001 2:3.2 3:4.8000002 4:1.8 #
1024 1:6.6999998 2:3.0999999 3:4.4000001 4:1.4 #
-1024 1:4.9000001 2:2.5 3:4.5 4:1.7 #
1024 1:7 2:3.2 3:4.6999998 4:1.4 #
1024 1:5.0999999 2:2.5 3:3 4:1.1 #
1024 1:6.5999999 2:2.9000001 3:4.5999999 4:1.3 #
-422.23809474581503 1:7.9000001 2:3.8 3:6.4000001 4:2 #
-1024 1:6 2:2.2 3:5 4:1.5 #
-1024 1:5.4000001 2:3.4000001 3:1.7 4:0.2 #
1024 1:5.6999998 2:2.8 3:4.0999999 4:1.3 #
1024 1:5.9000001 2:3 3:4.1999998 4:1.5 #
-1024 1:6.3000002 2:2.7 3:4.9000001 4:1.8 #
1024 1:5.5 2:2.5 3:4 4:1.3 #
1024 1:6 2:3.4000001 3:4.5 4:1.6 #
1024 1:6.4000001 2:3.2 3:4.5 4:1.5 #
-1024 1:6.1999998 2:2.8 3:4.8000002 4:1.8 #
1024 1:6.0999999 2:2.9000001 3:4.6999998 4:1.4 #
1024 1:5 2:2.3 3:3.3 4:1 #
1024 1:5.6999998 2:2.9000001 3:4.1999998 4:1.3 #
1024 1:5.6999998 2:2.8 3:4.5 4:1.3 #
-273.17204006956308 1:6.5 2:3 3:5.1999998 4:2 #
-1024 1:6.0999999 2:2.5999999 3:5.5999999 4:1.4 #
-1024 1:4.5999999 2:3.0999999 3:1.5 4:0.2 #
-1024 1:4.4000001 2:3 3:1.3 4:0.2 #
-1024 1:6.4000001 2:2.8 3:5.5999999 4:2.2 #
-1024 1:6.6999998 2:2.5 3:5.8000002 4:1.8 #
-1024 1:4.4000001 2:2.9000001 3:1.4 4:0.2 #
1024 1:5.5999999 2:2.9000001 3:3.5999999 4:1.3 #
1024 1:6.1999998 2:2.9000001 3:4.3000002 4:1.3 #
-492.87765514793955 1:4.6999998 2:3.2 3:1.6 4:0.2 #
1024 1:5.5 2:2.3 3:4 4:1.3 #
1024 1:6.0999999 2:3 3:4.5999999 4:1.4 #
1024 1:6.0999999 2:2.8 3:4 4:1.3 #
-1024 1:6.8000002 2:3 3:5.5 4:2.0999999 #
-1024 1:5.8000002 2:2.7 3:5.0999999 4:1.9 #
1024 1:5.5999999 2:2.7 3:4.1999998 4:1.3 #
943.2289040312462 1:5.8000002 2:2.7 3:4.0999999 4:1 #
-1024 1:5.8000002 2:2.7 3:5.0999999 4:1.9 #
-1024 1:4.9000001 2:3.0999999 3:1.5 4:0.1 #
1024 1:5.4000001 2:3 3:4.5 4:1.5 #
-1024 1:6.4000001 2:2.8 3:5.5999999 4:2.0999999 #
-778.94111406803131 1:5.9000001 2:3 3:5.0999999 4:1.8 #
1024 1:5.8000002 2:2.5999999 3:4 4:1.2 #
-1024 1:6.4000001 2:2.7 3:5.3000002 4:1.9 #
-1024 1:7.6999998 2:2.5999999 3:6.9000001 4:2.3 #
1024 1:6.3000002 2:3.3 3:4.6999998 4:1.6 #
-1024 1:6.4000001 2:3.0999999 3:5.5 4:1.8 #
-1024 1:4.9000001 2:3.0999999 3:1.5 4:0.1 #
1024 1:6 2:2.7 3:5.0999999 4:1.6 #
1024 1:6.5 2:2.8 3:4.5999999 4:1.5 #
1024 1:5.8000002 2:2.7 3:3.9000001 4:1.2 #
-1024 1:6.3000002 2:2.9000001 3:5.5999999 4:1.8 #
-1024 1:7.1999998 2:3.2 3:6 4:1.8 #
